Language model created by QuickLM on Tue Mar 27 14:59:55 EDT 2012
Copyright (c) 1996-2010 Carnegie Mellon University and Alexander I. Rudnicky

The model is in standard ARPA format, designed by Doug Paul while he was at MITRE.

The code that was used to produce this language model is available in Open Source.
Please visit http://www.speech.cs.cmu.edu/tools/ for more information

The (fixed) discount mass is 0.5. The backoffs are computed using the ratio method.
This model based on a corpus of 118 sentences and 106 words

\data\
ngram 1=106
ngram 2=228
ngram 3=218

\1-grams:
-0.9820 </s> -0.3010
-0.9820 <s> -0.2393
-1.8234 A -0.2850
-3.0538 ABORT -0.2532
-2.7528 ALE -0.2532
-2.4518 AN -0.2979
-2.4518 AND -0.2995
-3.0538 ANOTHER -0.2532
-2.7528 ANY -0.2991
-2.7528 APPLE -0.2995
-2.4518 ARE -0.2913
-2.7528 BACK -0.2532
-2.5767 BACKWARD -0.2532
-2.7528 BRANDY -0.2532
-1.7528 CAN -0.2905
-3.0538 CANCEL -0.2532
-2.4518 CIDER -0.2532
-2.7528 COKE -0.2532
-2.3549 COME -0.2945
-2.7528 CREAM -0.2532
-3.0538 DO -0.2913
-2.7528 DOING -0.2524
-2.7528 DOWN -0.2532
-2.3549 DRINK -0.2532
-2.7528 EGERTON -0.2532
-3.0538 FASTER -0.2532
-3.0538 FIRST -0.2532
-2.5767 FORWARD -0.2532
-3.0538 FREEZE -0.2532
-3.0538 FULL -0.2987
-1.7751 GET -0.2929
-2.7528 GIN -0.2995
-2.2757 GO -0.2937
-3.0538 HAFF -0.2987
-2.4518 HAIKAL -0.2524
-3.0538 HALF -0.2987
-3.0538 HALLFF -0.2987
-3.0538 HALT -0.2532
-2.5767 HAVE -0.2945
-3.0538 HELLO -0.2532
-2.7528 HELP -0.2441
-3.0538 HERE -0.2532
-2.4518 HOW -0.2995
-2.7528 I -0.2995
-2.7528 IRISH -0.3003
-2.1508 IS -0.2467
-2.7528 JIMMY -0.2524
-2.7528 JIMY -0.2524
-2.7528 JIN -0.2995
-3.0538 JOSH -0.2532
-2.7528 JOSHUA -0.2528
-2.7528 JUICE -0.2532
-3.0538 KILL -0.2532
-2.7528 LARGER -0.2532
-3.0538 LAST -0.2532
-2.3549 LEFT -0.2532
-2.7528 LEMONADE -0.2532
-3.0538 LIKE -0.3006
-1.7316 ME -0.2433
-2.3549 MOVE -0.2941
-2.2087 MY -0.2972
-2.0538 NAME -0.2498
-3.0538 NEWN -0.2532
-3.0538 NO -0.2532
-3.0538 NOW -0.2532
-3.0538 OFF -0.2532
-2.7528 ORANGE -0.3003
-3.0538 PANIC -0.2532
-2.7528 PEAR -0.2995
-3.0538 PLEASE -0.2532
-2.7528 PRIBADI -0.2532
-3.0538 QUARTER -0.2987
-2.7528 RED -0.2987
-2.3549 RIGHT -0.2532
-2.7528 ROBOT -0.2532
-2.7528 ROSE -0.2987
-2.7528 ROTATE -0.2972
-2.7528 RUM -0.2532
-2.7528 SAFFARI -0.2532
-3.0538 SHUT -0.3003
-2.4518 SIMON -0.2524
-3.0538 SLOW -0.3003
-3.0538 SLOWER -0.2532
-2.4518 SOROUSH -0.2524
-2.2757 SPEED -0.2528
-2.7528 STOP -0.2528
-3.0538 STRAIGHT -0.2532
-3.0538 SURPRISE -0.2929
-3.0538 THANK -0.2913
-3.0538 THE -0.2532
-3.0538 TO -0.2999
-2.7528 TODAY -0.2532
-2.4518 TONIC -0.2532
-2.5767 TURN -0.2968
-3.0538 UP -0.2532
-2.7528 VODKA -0.2532
-3.0538 WELCOME -0.2532
-3.0538 WHAT -0.2979
-3.0538 WHATS -0.2999
-2.7528 WHISKY -0.2532
-2.7528 WHITE -0.2987
-2.2757 WINE -0.2532
-3.0538 WOULD -0.3006
-3.0538 YES -0.2532
-1.6559 YOU -0.2419
-2.5767 YOUR -0.2968

\2-grams:
-2.3729 <s> ABORT 0.0000
-2.3729 <s> ALE 0.0000
-2.3729 <s> ANOTHER 0.0000
-2.3729 <s> ANY 0.0000
-2.3729 <s> APPLE 0.0000
-2.3729 <s> BRANDY 0.0000
-1.0719 <s> CAN 0.0000
-2.3729 <s> CANCEL 0.0000
-2.3729 <s> COKE 0.0000
-1.6739 <s> COME 0.0000
-2.3729 <s> DO 0.0000
-2.3729 <s> FASTER 0.0000
-2.3729 <s> FIRST 0.0000
-2.3729 <s> FREEZE 0.0000
-2.3729 <s> FULL 0.0000
-2.3729 <s> GIN 0.0000
-1.5948 <s> GO 0.0000
-2.3729 <s> HAFF 0.0000
-2.0719 <s> HAIKAL 0.0000
-2.3729 <s> HALF 0.0000
-2.3729 <s> HALLFF 0.0000
-2.3729 <s> HALT 0.0000
-2.3729 <s> HELLO 0.0000
-2.0719 <s> HELP 0.0000
-1.7709 <s> HOW 0.0000
-2.3729 <s> I -0.1761
-2.3729 <s> IRISH 0.0000
-2.0719 <s> JIMMY 0.0000
-2.0719 <s> JIMY 0.0000
-2.3729 <s> JIN 0.0000
-2.3729 <s> JOSH 0.0000
-2.0719 <s> JOSHUA 0.0000
-2.3729 <s> KILL 0.0000
-2.3729 <s> LARGER 0.0000
-2.3729 <s> LAST 0.0000
-2.3729 <s> LEMONADE 0.0000
-1.6739 <s> MOVE 0.0000
-1.5278 <s> MY 0.0000
-2.3729 <s> NO 0.0000
-2.3729 <s> ORANGE 0.0000
-2.3729 <s> PANIC 0.0000
-2.3729 <s> PEAR 0.0000
-2.3729 <s> PLEASE 0.0000
-2.3729 <s> QUARTER 0.0000
-2.3729 <s> RED 0.0000
-2.3729 <s> ROSE 0.0000
-2.0719 <s> ROTATE 0.0000
-2.3729 <s> RUM 0.0000
-2.3729 <s> SHUT 0.0000
-2.0719 <s> SIMON 0.0000
-2.3729 <s> SLOW 0.0000
-2.3729 <s> SLOWER 0.0000
-2.0719 <s> SOROUSH 0.0000
-2.3729 <s> SPEED -0.2632
-2.0719 <s> STOP 0.0000
-2.3729 <s> SURPRISE 0.0000
-2.3729 <s> THANK 0.0000
-2.3729 <s> THE 0.0000
-1.8958 <s> TURN 0.0000
-2.3729 <s> VODKA 0.0000
-2.3729 <s> WHAT 0.0000
-2.3729 <s> WHATS 0.0000
-2.3729 <s> WHISKY 0.0000
-2.3729 <s> WHITE 0.0000
-2.3729 <s> YES 0.0000
-2.3729 <s> YOUR -0.2218
-1.5315 A BRANDY 0.0000
-1.5315 A COKE 0.0000
-1.0544 A DRINK 0.0000
-1.5315 A GIN 0.0000
-1.5315 A JIN 0.0000
-1.5315 A LARGER 0.0000
-1.5315 A LEMONADE 0.0000
-1.5315 A NAME -0.2304
-1.5315 A PEAR 0.0000
-1.5315 A RED 0.0000
-1.5315 A ROSE 0.0000
-1.5315 A RUM 0.0000
-1.5315 A VODKA 0.0000
-1.5315 A WHISKY 0.0000
-1.5315 A WHITE 0.0000
-0.3010 ABORT </s> -0.3010
-0.3010 ALE </s> -0.3010
-0.9031 AN ALE 0.0000
-0.9031 AN APPLE 0.0000
-0.9031 AN IRISH 0.0000
-0.9031 AN ORANGE 0.0000
-0.3010 AND TONIC 0.0000
-0.3010 ANOTHER </s> -0.3010
-0.3010 ANY DRINK 0.0000
-0.3010 APPLE CIDER 0.0000
-0.3010 ARE YOU -0.2553
-0.3010 BACK </s> -0.3010
-0.3010 BACKWARD </s> -0.3010
-0.3010 BRANDY </s> -0.3010
-1.6021 CAN I -0.1761
-0.3233 CAN YOU -0.0934
-0.3010 CANCEL </s> -0.3010
-0.3010 CIDER </s> -0.3010
-0.3010 COKE </s> -0.3010
-1.0000 COME BACKWARD 0.0000
-1.0000 COME FORWARD 0.0000
-1.0000 COME HERE 0.0000
-1.0000 COME LEFT 0.0000
-1.0000 COME RIGHT 0.0000
-0.3010 CREAM </s> -0.3010
-0.3010 DO YOU -0.2923
-0.6021 DOING </s> -0.3010
-0.6021 DOING TODAY 0.0000
-0.3010 DOWN </s> -0.3010
-0.3010 DRINK </s> -0.3010
-0.3010 EGERTON </s> -0.3010
-0.3010 FASTER </s> -0.3010
-0.3010 FIRST </s> -0.3010
-0.3010 FORWARD </s> -0.3010
-0.3010 FREEZE </s> -0.3010
-0.3010 FULL SPEED -0.0669
-0.3010 GET ME -0.0395
-0.3010 GIN AND 0.0000
-1.0792 GO BACK 0.0000
-1.0792 GO BACKWARD 0.0000
-1.0792 GO FORWARD 0.0000
-1.0792 GO LEFT 0.0000
-1.0792 GO RIGHT 0.0000
-1.0792 GO STRAIGHT 0.0000
-0.3010 HAFF SPEED -0.0669
-0.6021 HAIKAL </s> -0.3010
-0.6021 HAIKAL PRIBADI 0.0000
-0.3010 HALF SPEED -0.0669
-0.3010 HALLFF SPEED -0.0669
-0.3010 HALT </s> -0.3010
-0.3010 HAVE A -0.2467
-0.3010 HELLO </s> -0.3010
-0.6021 HELP </s> -0.3010
-0.6021 HELP ME -0.2798
-0.3010 HERE </s> -0.3010
-0.3010 HOW ARE 0.0000
-0.6021 I HAVE 0.0000
-0.6021 I WOULD 0.0000
-0.3010 IRISH CREAM 0.0000
-1.2041 IS </s> -0.3010
-0.9031 IS HAIKAL 0.0000
-0.9031 IS SIMON 0.0000
-0.9031 IS SOROUSH 0.0000
-1.2041 IS YOUR -0.1249
-0.6021 JIMMY </s> -0.3010
-0.6021 JIMMY ROBOT 0.0000
-0.6021 JIMY </s> -0.3010
-0.6021 JIMY ROBOT 0.0000
-0.3010 JIN AND 0.0000
-0.3010 JOSH </s> -0.3010
-0.6021 JOSHUA </s> -0.3010
-0.6021 JOSHUA NEWN 0.0000
-0.3010 JUICE </s> -0.3010
-0.3010 KILL </s> -0.3010
-0.3010 LARGER </s> -0.3010
-0.3010 LAST </s> -0.3010
-0.3010 LEFT </s> -0.3010
-0.3010 LEMONADE </s> -0.3010
-0.3010 LIKE TO 0.0000
-1.3222 ME </s> -0.3010
-0.4771 ME A -0.0248
-1.0212 ME AN 0.0000
-1.6232 ME ANY 0.0000
-1.0000 MOVE BACK 0.0000
-1.0000 MOVE BACKWARD 0.0000
-1.0000 MOVE FORWARD 0.0000
-1.0000 MOVE LEFT 0.0000
-1.0000 MOVE RIGHT 0.0000
-0.3010 MY NAME -0.1139
-0.8239 NAME </s> -0.3010
-0.4559 NAME IS -0.0512
-0.3010 NEWN </s> -0.3010
-0.3010 NO </s> -0.3010
-0.3010 NOW </s> -0.3010
-0.3010 OFF </s> -0.3010
-0.3010 ORANGE JUICE 0.0000
-0.3010 PANIC </s> -0.3010
-0.3010 PEAR CIDER 0.0000
-0.3010 PLEASE </s> -0.3010
-0.3010 PRIBADI </s> -0.3010
-0.3010 QUARTER SPEED -0.0669
-0.3010 RED WINE 0.0000
-0.3010 RIGHT </s> -0.3010
-0.3010 ROBOT </s> -0.3010
-0.3010 ROSE WINE 0.0000
-0.6021 ROTATE LEFT 0.0000
-0.6021 ROTATE RIGHT 0.0000
-0.3010 RUM </s> -0.3010
-0.3010 SAFFARI </s> -0.3010
-0.3010 SHUT DOWN 0.0000
-0.6021 SIMON </s> -0.3010
-0.6021 SIMON EGERTON 0.0000
-0.3010 SLOW DOWN 0.0000
-0.3010 SLOWER </s> -0.3010
-0.6021 SOROUSH </s> -0.3010
-0.6021 SOROUSH SAFFARI 0.0000
-0.3802 SPEED </s> -0.3010
-1.0792 SPEED UP 0.0000
-0.6021 STOP </s> -0.3010
-0.6021 STOP NOW 0.0000
-0.3010 STRAIGHT </s> -0.3010
-0.3010 SURPRISE ME -0.2798
-0.3010 THANK YOU -0.2833
-0.3010 THE </s> -0.3010
-0.3010 TO HAVE 0.0000
-0.3010 TODAY </s> -0.3010
-0.3010 TONIC </s> -0.3010
-0.7782 TURN LEFT 0.0000
-0.7782 TURN OFF 0.0000
-0.7782 TURN RIGHT 0.0000
-0.3010 UP </s> -0.3010
-0.3010 VODKA </s> -0.3010
-0.3010 WELCOME </s> -0.3010
-0.3010 WHAT IS -0.2730
-0.3010 WHATS YOUR -0.1249
-0.3010 WHISKY </s> -0.3010
-0.3010 WHITE WINE 0.0000
-0.3010 WINE </s> -0.3010
-0.3010 WOULD LIKE 0.0000
-0.3010 YES </s> -0.3010
-1.3979 YOU </s> -0.3010
-1.3979 YOU DOING 0.0000
-0.4202 YOU GET 0.0000
-1.6990 YOU HAVE 0.0000
-1.6990 YOU TODAY 0.0000
-0.4771 YOUR NAME -0.2304
-0.7782 YOUR WELCOME 0.0000

\3-grams:
-0.3010 <s> ABORT </s>
-0.3010 <s> ALE </s>
-0.3010 <s> ANOTHER </s>
-0.3010 <s> ANY DRINK
-0.3010 <s> APPLE CIDER
-0.3010 <s> BRANDY </s>
-1.6021 <s> CAN I
-0.3233 <s> CAN YOU
-0.3010 <s> CANCEL </s>
-0.3010 <s> COKE </s>
-1.0000 <s> COME BACKWARD
-1.0000 <s> COME FORWARD
-1.0000 <s> COME HERE
-1.0000 <s> COME LEFT
-1.0000 <s> COME RIGHT
-0.3010 <s> DO YOU
-0.3010 <s> FASTER </s>
-0.3010 <s> FIRST </s>
-0.3010 <s> FREEZE </s>
-0.3010 <s> FULL SPEED
-0.3010 <s> GIN AND
-1.0792 <s> GO BACK
-1.0792 <s> GO BACKWARD
-1.0792 <s> GO FORWARD
-1.0792 <s> GO LEFT
-1.0792 <s> GO RIGHT
-1.0792 <s> GO STRAIGHT
-0.3010 <s> HAFF SPEED
-0.6021 <s> HAIKAL </s>
-0.6021 <s> HAIKAL PRIBADI
-0.3010 <s> HALF SPEED
-0.3010 <s> HALLFF SPEED
-0.3010 <s> HALT </s>
-0.3010 <s> HELLO </s>
-0.6021 <s> HELP </s>
-0.6021 <s> HELP ME
-0.3010 <s> HOW ARE
-0.3010 <s> I WOULD
-0.3010 <s> IRISH CREAM
-0.6021 <s> JIMMY </s>
-0.6021 <s> JIMMY ROBOT
-0.6021 <s> JIMY </s>
-0.6021 <s> JIMY ROBOT
-0.3010 <s> JIN AND
-0.3010 <s> JOSH </s>
-0.6021 <s> JOSHUA </s>
-0.6021 <s> JOSHUA NEWN
-0.3010 <s> KILL </s>
-0.3010 <s> LARGER </s>
-0.3010 <s> LAST </s>
-0.3010 <s> LEMONADE </s>
-1.0000 <s> MOVE BACK
-1.0000 <s> MOVE BACKWARD
-1.0000 <s> MOVE FORWARD
-1.0000 <s> MOVE LEFT
-1.0000 <s> MOVE RIGHT
-0.3010 <s> MY NAME
-0.3010 <s> NO </s>
-0.3010 <s> ORANGE JUICE
-0.3010 <s> PANIC </s>
-0.3010 <s> PEAR CIDER
-0.3010 <s> PLEASE </s>
-0.3010 <s> QUARTER SPEED
-0.3010 <s> RED WINE
-0.3010 <s> ROSE WINE
-0.6021 <s> ROTATE LEFT
-0.6021 <s> ROTATE RIGHT
-0.3010 <s> RUM </s>
-0.3010 <s> SHUT DOWN
-0.6021 <s> SIMON </s>
-0.6021 <s> SIMON EGERTON
-0.3010 <s> SLOW DOWN
-0.3010 <s> SLOWER </s>
-0.6021 <s> SOROUSH </s>
-0.6021 <s> SOROUSH SAFFARI
-0.3010 <s> SPEED UP
-0.6021 <s> STOP </s>
-0.6021 <s> STOP NOW
-0.3010 <s> SURPRISE ME
-0.3010 <s> THANK YOU
-0.3010 <s> THE </s>
-0.7782 <s> TURN LEFT
-0.7782 <s> TURN OFF
-0.7782 <s> TURN RIGHT
-0.3010 <s> VODKA </s>
-0.3010 <s> WHAT IS
-0.3010 <s> WHATS YOUR
-0.3010 <s> WHISKY </s>
-0.3010 <s> WHITE WINE
-0.3010 <s> YES </s>
-0.3010 <s> YOUR WELCOME
-0.3010 A BRANDY </s>
-0.3010 A COKE </s>
-0.3010 A DRINK </s>
-0.3010 A GIN AND
-0.3010 A JIN AND
-0.3010 A LARGER </s>
-0.3010 A LEMONADE </s>
-0.3010 A NAME </s>
-0.3010 A PEAR CIDER
-0.3010 A RED WINE
-0.3010 A ROSE WINE
-0.3010 A RUM </s>
-0.3010 A VODKA </s>
-0.3010 A WHISKY </s>
-0.3010 A WHITE WINE
-0.3010 AN ALE </s>
-0.3010 AN APPLE CIDER
-0.3010 AN IRISH CREAM
-0.3010 AN ORANGE JUICE
-0.3010 AND TONIC </s>
-0.3010 ANY DRINK </s>
-0.3010 APPLE CIDER </s>
-0.9031 ARE YOU </s>
-0.6021 ARE YOU DOING
-0.9031 ARE YOU TODAY
-0.3010 CAN I HAVE
-0.3010 CAN YOU GET
-0.3010 COME BACKWARD </s>
-0.3010 COME FORWARD </s>
-0.3010 COME HERE </s>
-0.3010 COME LEFT </s>
-0.3010 COME RIGHT </s>
-0.3010 DO YOU HAVE
-0.3010 DOING TODAY </s>
-0.3010 FULL SPEED </s>
-0.4337 GET ME A
-0.9777 GET ME AN
-1.5798 GET ME ANY
-0.3010 GIN AND TONIC
-0.3010 GO BACK </s>
-0.3010 GO BACKWARD </s>
-0.3010 GO FORWARD </s>
-0.3010 GO LEFT </s>
-0.3010 GO RIGHT </s>
-0.3010 GO STRAIGHT </s>
-0.3010 HAFF SPEED </s>
-0.3010 HAIKAL PRIBADI </s>
-0.3010 HALF SPEED </s>
-0.3010 HALLFF SPEED </s>
-0.4771 HAVE A DRINK
-0.7782 HAVE A NAME
-0.3010 HELP ME </s>
-0.3010 HOW ARE YOU
-0.3010 I HAVE A
-0.3010 I WOULD LIKE
-0.3010 IRISH CREAM </s>
-0.6021 IS HAIKAL </s>
-0.6021 IS HAIKAL PRIBADI
-0.6021 IS SIMON </s>
-0.6021 IS SIMON EGERTON
-0.6021 IS SOROUSH </s>
-0.6021 IS SOROUSH SAFFARI
-0.3010 IS YOUR NAME
-0.3010 JIMMY ROBOT </s>
-0.3010 JIMY ROBOT </s>
-0.3010 JIN AND TONIC
-0.3010 JOSHUA NEWN </s>
-0.3010 LIKE TO HAVE
-1.4472 ME A BRANDY
-1.4472 ME A COKE
-1.4472 ME A DRINK
-1.4472 ME A GIN
-1.4472 ME A JIN
-1.4472 ME A LARGER
-1.4472 ME A LEMONADE
-1.4472 ME A PEAR
-1.4472 ME A RED
-1.4472 ME A ROSE
-1.4472 ME A RUM
-1.4472 ME A VODKA
-1.4472 ME A WHISKY
-1.4472 ME A WHITE
-0.9031 ME AN ALE
-0.9031 ME AN APPLE
-0.9031 ME AN IRISH
-0.9031 ME AN ORANGE
-0.3010 ME ANY DRINK
-0.3010 MOVE BACK </s>
-0.3010 MOVE BACKWARD </s>
-0.3010 MOVE FORWARD </s>
-0.3010 MOVE LEFT </s>
-0.3010 MOVE RIGHT </s>
-0.3010 MY NAME IS
-1.1461 NAME IS </s>
-0.8451 NAME IS HAIKAL
-0.8451 NAME IS SIMON
-0.8451 NAME IS SOROUSH
-0.3010 ORANGE JUICE </s>
-0.3010 PEAR CIDER </s>
-0.3010 QUARTER SPEED </s>
-0.3010 RED WINE </s>
-0.3010 ROSE WINE </s>
-0.3010 ROTATE LEFT </s>
-0.3010 ROTATE RIGHT </s>
-0.3010 SHUT DOWN </s>
-0.3010 SIMON EGERTON </s>
-0.3010 SLOW DOWN </s>
-0.3010 SOROUSH SAFFARI </s>
-0.3010 SPEED UP </s>
-0.3010 STOP NOW </s>
-0.3010 SURPRISE ME </s>
-0.3010 THANK YOU </s>
-0.3010 TO HAVE A
-0.3010 TURN LEFT </s>
-0.3010 TURN OFF </s>
-0.3010 TURN RIGHT </s>
-0.3010 WHAT IS YOUR
-0.3010 WHATS YOUR NAME
-0.3010 WHITE WINE </s>
-0.3010 WOULD LIKE TO
-0.6021 YOU DOING </s>
-0.6021 YOU DOING TODAY
-0.3010 YOU GET ME
-0.3010 YOU HAVE A
-0.3010 YOU TODAY </s>
-0.3010 YOUR NAME </s>
-0.3010 YOUR WELCOME </s>

\end\
