Language model created by QuickLM on Sun Apr 22 16:45:16 EDT 2012
Copyright (c) 1996-2010 Carnegie Mellon University and Alexander I. Rudnicky

The model is in standard ARPA format, designed by Doug Paul while he was at MITRE.

The code that was used to produce this language model is available in Open Source.
Please visit http://www.speech.cs.cmu.edu/tools/ for more information

The (fixed) discount mass is 0.5. The backoffs are computed using the ratio method.
This model based on a corpus of 146 sentences and 112 words

\data\
ngram 1=112
ngram 2=272
ngram 3=286

\1-grams:
-1.0441 </s> -0.3010
-1.0441 <s> -0.2293
-1.9780 A -0.2787
-3.2084 ABORT -0.2599
-2.7313 ALE -0.2599
-2.6064 AN -0.2978
-2.4303 AND -0.2994
-3.2084 ANOTHER -0.2599
-2.7313 ANY -0.2923
-2.7313 APPLE -0.2994
-2.6064 ARE -0.2890
-2.9074 BACK -0.2599
-2.7313 BACKWARD -0.2599
-2.7313 BRANDY -0.2599
-1.6174 CAN -0.2871
-2.7313 CANCEL -0.2513
-1.9297 CHANGE -0.2932
-2.4303 CIDER -0.2599
-2.7313 COKE -0.2599
-2.5095 COME -0.2964
-2.7313 CREAM -0.2599
-3.2084 DO -0.2890
-2.9074 DOING -0.2593
-3.2084 DONT -0.3008
-2.9074 DOWN -0.2599
-1.7033 DRINK -0.2519
-2.9074 EGERTON -0.2599
-3.2084 FASTER -0.2599
-3.2084 FIRST -0.2599
-2.7313 FORWARD -0.2599
-3.2084 FREEZE -0.2599
-3.2084 FULL -0.2997
-1.9297 GET -0.2953
-2.7313 GIN -0.2994
-2.4303 GO -0.2959
-3.2084 HAFF -0.2997
-2.6064 HAIKAL -0.2593
-3.2084 HALF -0.2997
-3.2084 HALT -0.2599
-2.7313 HAVE -0.2964
-3.2084 HELLO -0.2599
-2.9074 HELP -0.2537
-3.2084 HERE -0.2599
-2.6064 HOW -0.3000
-2.3633 I -0.2986
-2.7313 IRISH -0.3002
-2.0945 IS -0.2528
-2.9074 JIMMY -0.2593
-2.9074 JIMY -0.2593
-2.7313 JIN -0.2994
-3.2084 JOSH -0.2599
-2.9074 JOSHUA -0.2596
-2.7313 JUICE -0.2599
-3.2084 KILL -0.2599
-2.7313 LARGER -0.2599
-3.2084 LAST -0.2599
-2.5095 LEFT -0.2599
-2.7313 LEMONADE -0.2599
-2.9074 LIKE -0.2956
-1.8862 ME -0.2528
-2.5095 MOVE -0.2962
-1.7460 MY -0.2896
-2.2084 NAME -0.2560
-3.2084 NEWN -0.2599
-2.9074 NO -0.2593
-2.9074 NOT -0.2918
-3.2084 NOW -0.2599
-3.2084 OFF -0.2599
-2.7313 ORANGE -0.3002
-2.7313 ORDERED -0.2599
-3.2084 PANIC -0.2599
-2.7313 PEAR -0.2994
-3.2084 PLEASE -0.2599
-2.9074 PRIBADI -0.2599
-3.2084 QUARTER -0.2997
-2.7313 RED -0.2986
-2.5095 RIGHT -0.2599
-2.9074 ROBOT -0.2599
-2.7313 ROSE -0.2986
-2.9074 ROTATE -0.2983
-2.7313 RUM -0.2599
-2.9074 SAFFARI -0.2599
-3.2084 SHUT -0.3005
-2.6064 SIMON -0.2593
-3.2084 SLOW -0.3005
-3.2084 SLOWER -0.2599
-2.6064 SOROUSH -0.2593
-2.5095 SPEED -0.2596
-2.9074 STOP -0.2596
-3.2084 STRAIGHT -0.2599
-3.2084 SURPRISE -0.2953
-3.2084 THANK -0.2890
-2.4303 THAT -0.2888
-2.5095 THE -0.2485
-1.9074 TO -0.2378
-2.9074 TODAY -0.2599
-2.4303 TONIC -0.2599
-2.7313 TURN -0.2981
-3.2084 UP -0.2599
-2.7313 VODKA -0.2599
-3.2084 WANT -0.2994
-3.2084 WELCOME -0.2599
-2.9074 WHAT -0.2956
-3.2084 WHATS -0.3002
-2.7313 WHISKY -0.2599
-2.7313 WHITE -0.2986
-2.2542 WINE -0.2599
-2.9074 WOULD -0.3005
-3.2084 WRONG -0.2923
-3.2084 YES -0.2599
-1.5650 YOU -0.2455
-2.7313 YOUR -0.2981

\2-grams:
-2.4654 <s> ABORT 0.0000
-2.4654 <s> ALE 0.0000
-2.4654 <s> ANOTHER 0.0000
-2.1644 <s> ANY 0.0000
-2.4654 <s> APPLE 0.0000
-2.4654 <s> BRANDY 0.0000
-0.8743 <s> CAN 0.0000
-2.1644 <s> CANCEL 0.0000
-2.4654 <s> COKE 0.0000
-1.7664 <s> COME 0.0000
-2.4654 <s> DO 0.0000
-2.4654 <s> FASTER 0.0000
-2.4654 <s> FIRST 0.0000
-2.4654 <s> FREEZE 0.0000
-2.4654 <s> FULL 0.0000
-2.4654 <s> GIN 0.0000
-1.6872 <s> GO 0.0000
-2.4654 <s> HAFF 0.0000
-2.1644 <s> HAIKAL 0.0000
-2.4654 <s> HALF 0.0000
-2.4654 <s> HALT 0.0000
-2.4654 <s> HELLO 0.0000
-2.1644 <s> HELP 0.0000
-1.8633 <s> HOW 0.0000
-1.9883 <s> I -0.1963
-2.4654 <s> IRISH 0.0000
-2.1644 <s> JIMMY 0.0000
-2.1644 <s> JIMY 0.0000
-2.4654 <s> JIN 0.0000
-2.4654 <s> JOSH 0.0000
-2.1644 <s> JOSHUA 0.0000
-2.4654 <s> KILL 0.0000
-2.4654 <s> LARGER 0.0000
-2.4654 <s> LAST 0.0000
-2.4654 <s> LEMONADE 0.0000
-1.7664 <s> MOVE 0.0000
-1.6203 <s> MY -0.2452
-2.4654 <s> NO -0.1761
-2.4654 <s> ORANGE 0.0000
-2.4654 <s> PANIC 0.0000
-2.4654 <s> PEAR 0.0000
-2.4654 <s> PLEASE 0.0000
-2.4654 <s> QUARTER 0.0000
-2.4654 <s> RED 0.0000
-2.4654 <s> ROSE 0.0000
-2.1644 <s> ROTATE 0.0000
-2.4654 <s> RUM 0.0000
-2.4654 <s> SHUT 0.0000
-2.1644 <s> SIMON 0.0000
-2.4654 <s> SLOW 0.0000
-2.4654 <s> SLOWER 0.0000
-2.1644 <s> SOROUSH 0.0000
-2.4654 <s> SPEED -0.2553
-2.1644 <s> STOP 0.0000
-2.4654 <s> SURPRISE 0.0000
-2.4654 <s> THANK 0.0000
-1.7664 <s> THAT -0.0669
-2.4654 <s> THE -0.2553
-2.4654 <s> TO -0.2900
-1.9883 <s> TURN 0.0000
-2.4654 <s> VODKA 0.0000
-2.4654 <s> WHAT -0.1761
-2.4654 <s> WHATS 0.0000
-2.4654 <s> WHISKY 0.0000
-2.4654 <s> WHITE 0.0000
-2.4654 <s> YES 0.0000
-2.4654 <s> YOUR -0.2218
-1.5315 A BRANDY 0.0000
-1.5315 A COKE 0.0000
-1.0544 A DRINK -0.2024
-1.5315 A GIN 0.0000
-1.5315 A JIN 0.0000
-1.5315 A LARGER 0.0000
-1.5315 A LEMONADE 0.0000
-1.5315 A NAME -0.2304
-1.5315 A PEAR 0.0000
-1.5315 A RED 0.0000
-1.5315 A ROSE 0.0000
-1.5315 A RUM 0.0000
-1.5315 A VODKA 0.0000
-1.5315 A WHISKY 0.0000
-1.5315 A WHITE 0.0000
-0.3010 ABORT </s> -0.3010
-0.3010 ALE </s> -0.3010
-0.9031 AN ALE 0.0000
-0.9031 AN APPLE 0.0000
-0.9031 AN IRISH 0.0000
-0.9031 AN ORANGE 0.0000
-0.3010 AND TONIC 0.0000
-0.3010 ANOTHER </s> -0.3010
-0.3010 ANY DRINK -0.2024
-0.3010 APPLE CIDER 0.0000
-0.3010 ARE YOU -0.2756
-0.3010 BACK </s> -0.3010
-0.3010 BACKWARD </s> -0.3010
-0.3010 BRANDY </s> -0.3010
-1.8921 CAN I -0.2688
-0.3123 CAN YOU -0.0555
-0.7782 CANCEL </s> -0.3010
-0.4771 CANCEL MY -0.0939
-0.3010 CHANGE MY -0.0939
-0.3010 CIDER </s> -0.3010
-0.3010 COKE </s> -0.3010
-1.0000 COME BACKWARD 0.0000
-1.0000 COME FORWARD 0.0000
-1.0000 COME HERE 0.0000
-1.0000 COME LEFT 0.0000
-1.0000 COME RIGHT 0.0000
-0.3010 CREAM </s> -0.3010
-0.3010 DO YOU -0.2961
-0.6021 DOING </s> -0.3010
-0.6021 DOING TODAY 0.0000
-0.3010 DONT WANT 0.0000
-0.3010 DOWN </s> -0.3010
-0.6922 DRINK </s> -0.3010
-1.5051 DRINK I -0.1963
-0.5757 DRINK TO -0.0607
-0.3010 EGERTON </s> -0.3010
-0.3010 FASTER </s> -0.3010
-0.3010 FIRST </s> -0.3010
-0.3010 FORWARD </s> -0.3010
-0.3010 FREEZE </s> -0.3010
-0.3010 FULL SPEED -0.0792
-0.3010 GET ME -0.0395
-0.3010 GIN AND 0.0000
-1.0792 GO BACK 0.0000
-1.0792 GO BACKWARD 0.0000
-1.0792 GO FORWARD 0.0000
-1.0792 GO LEFT 0.0000
-1.0792 GO RIGHT 0.0000
-1.0792 GO STRAIGHT 0.0000
-0.3010 HAFF SPEED -0.0792
-0.6021 HAIKAL </s> -0.3010
-0.6021 HAIKAL PRIBADI 0.0000
-0.3010 HALF SPEED -0.0792
-0.3010 HALT </s> -0.3010
-0.3010 HAVE A -0.2467
-0.3010 HELLO </s> -0.3010
-0.6021 HELP </s> -0.3010
-0.6021 HELP ME -0.2798
-0.3010 HERE </s> -0.3010
-0.3010 HOW ARE 0.0000
-1.1461 I DONT 0.0000
-1.1461 I HAVE 0.0000
-0.6690 I ORDERED 0.0000
-0.8451 I WOULD 0.0000
-0.3010 IRISH CREAM 0.0000
-1.4150 IS </s> -0.3010
-1.1139 IS HAIKAL 0.0000
-1.4150 IS NO -0.1761
-1.1139 IS NOT 0.0000
-1.1139 IS SIMON 0.0000
-1.1139 IS SOROUSH 0.0000
-1.1139 IS THE -0.2041
-1.4150 IS YOUR -0.1249
-0.6021 JIMMY </s> -0.3010
-0.6021 JIMMY ROBOT 0.0000
-0.6021 JIMY </s> -0.3010
-0.6021 JIMY ROBOT 0.0000
-0.3010 JIN AND 0.0000
-0.3010 JOSH </s> -0.3010
-0.6021 JOSHUA </s> -0.3010
-0.6021 JOSHUA NEWN 0.0000
-0.3010 JUICE </s> -0.3010
-0.3010 KILL </s> -0.3010
-0.3010 LARGER </s> -0.3010
-0.3010 LAST </s> -0.3010
-0.3010 LEFT </s> -0.3010
-0.3010 LEMONADE </s> -0.3010
-0.3010 LIKE TO -0.2788
-1.3222 ME </s> -0.3010
-0.4771 ME A -0.0248
-1.0212 ME AN 0.0000
-1.6232 ME ANY 0.0000
-1.0000 MOVE BACK 0.0000
-1.0000 MOVE BACKWARD 0.0000
-1.0000 MOVE FORWARD 0.0000
-1.0000 MOVE LEFT 0.0000
-1.0000 MOVE RIGHT 0.0000
-0.4210 MY DRINK -0.0263
-0.9183 MY NAME -0.1139
-0.8239 NAME </s> -0.3010
-0.4559 NAME IS -0.1648
-0.3010 NEWN </s> -0.3010
-0.6021 NO </s> -0.3010
-0.6021 NO WHAT -0.1761
-0.6021 NOT MY -0.0939
-0.6021 NOT THE -0.2041
-0.3010 NOW </s> -0.3010
-0.3010 OFF </s> -0.3010
-0.3010 ORANGE JUICE 0.0000
-0.3010 ORDERED </s> -0.3010
-0.3010 PANIC </s> -0.3010
-0.3010 PEAR CIDER 0.0000
-0.3010 PLEASE </s> -0.3010
-0.3010 PRIBADI </s> -0.3010
-0.3010 QUARTER SPEED -0.0792
-0.3010 RED WINE 0.0000
-0.3010 RIGHT </s> -0.3010
-0.3010 ROBOT </s> -0.3010
-0.3010 ROSE WINE 0.0000
-0.6021 ROTATE LEFT 0.0000
-0.6021 ROTATE RIGHT 0.0000
-0.3010 RUM </s> -0.3010
-0.3010 SAFFARI </s> -0.3010
-0.3010 SHUT DOWN 0.0000
-0.6021 SIMON </s> -0.3010
-0.6021 SIMON EGERTON 0.0000
-0.3010 SLOW DOWN 0.0000
-0.3010 SLOWER </s> -0.3010
-0.6021 SOROUSH </s> -0.3010
-0.6021 SOROUSH SAFFARI 0.0000
-0.3979 SPEED </s> -0.3010
-1.0000 SPEED UP 0.0000
-0.6021 STOP </s> -0.3010
-0.6021 STOP NOW 0.0000
-0.3010 STRAIGHT </s> -0.3010
-0.3010 SURPRISE ME -0.2798
-0.3010 THANK YOU -0.2910
-1.0792 THAT DRINK -0.2024
-0.3802 THAT IS -0.2083
-1.0000 THE </s> -0.3010
-0.6990 THE DRINK -0.2872
-1.0000 THE THE -0.2041
-1.0000 THE WRONG 0.0000
-1.6021 TO </s> -0.3010
-1.6021 TO ALE 0.0000
-1.6021 TO APPLE 0.0000
-1.6021 TO BRANDY 0.0000
-1.6021 TO CHANGE 0.0000
-1.6021 TO COKE 0.0000
-1.6021 TO GIN 0.0000
-1.6021 TO HAVE 0.0000
-1.6021 TO IRISH 0.0000
-1.6021 TO JIN 0.0000
-1.6021 TO LARGER 0.0000
-1.6021 TO LEMONADE 0.0000
-1.6021 TO ORANGE 0.0000
-1.6021 TO PEAR 0.0000
-1.6021 TO RED 0.0000
-1.6021 TO ROSE 0.0000
-1.6021 TO RUM 0.0000
-1.6021 TO VODKA 0.0000
-1.6021 TO WHISKY 0.0000
-1.6021 TO WHITE 0.0000
-0.3010 TODAY </s> -0.3010
-0.3010 TONIC </s> -0.3010
-0.7782 TURN LEFT 0.0000
-0.7782 TURN OFF 0.0000
-0.7782 TURN RIGHT 0.0000
-0.3010 UP </s> -0.3010
-0.3010 VODKA </s> -0.3010
-0.3010 WANT THAT -0.2632
-0.3010 WELCOME </s> -0.3010
-0.6021 WHAT I -0.1963
-0.6021 WHAT IS -0.2840
-0.3010 WHATS YOUR -0.1249
-0.3010 WHISKY </s> -0.3010
-0.3010 WHITE WINE 0.0000
-0.3010 WINE </s> -0.3010
-0.3010 WOULD LIKE 0.0000
-0.3010 WRONG DRINK -0.2024
-0.3010 YES </s> -0.3010
-1.6435 YOU </s> -0.3010
-1.9445 YOU CANCEL -0.1249
-0.6892 YOU CHANGE 0.0000
-1.6435 YOU DOING 0.0000
-0.6657 YOU GET 0.0000
-1.9445 YOU HAVE 0.0000
-1.9445 YOU TODAY 0.0000
-0.4771 YOUR NAME -0.2304
-0.7782 YOUR WELCOME 0.0000

\3-grams:
-0.3010 <s> ABORT </s>
-0.3010 <s> ALE </s>
-0.3010 <s> ANOTHER </s>
-0.3010 <s> ANY DRINK
-0.3010 <s> APPLE CIDER
-0.3010 <s> BRANDY </s>
-1.8921 <s> CAN I
-0.3123 <s> CAN YOU
-0.6021 <s> CANCEL </s>
-0.6021 <s> CANCEL MY
-0.3010 <s> COKE </s>
-1.0000 <s> COME BACKWARD
-1.0000 <s> COME FORWARD
-1.0000 <s> COME HERE
-1.0000 <s> COME LEFT
-1.0000 <s> COME RIGHT
-0.3010 <s> DO YOU
-0.3010 <s> FASTER </s>
-0.3010 <s> FIRST </s>
-0.3010 <s> FREEZE </s>
-0.3010 <s> FULL SPEED
-0.3010 <s> GIN AND
-1.0792 <s> GO BACK
-1.0792 <s> GO BACKWARD
-1.0792 <s> GO FORWARD
-1.0792 <s> GO LEFT
-1.0792 <s> GO RIGHT
-1.0792 <s> GO STRAIGHT
-0.3010 <s> HAFF SPEED
-0.6021 <s> HAIKAL </s>
-0.6021 <s> HAIKAL PRIBADI
-0.3010 <s> HALF SPEED
-0.3010 <s> HALT </s>
-0.3010 <s> HELLO </s>
-0.6021 <s> HELP </s>
-0.6021 <s> HELP ME
-0.3010 <s> HOW ARE
-0.7782 <s> I DONT
-0.4771 <s> I WOULD
-0.3010 <s> IRISH CREAM
-0.6021 <s> JIMMY </s>
-0.6021 <s> JIMMY ROBOT
-0.6021 <s> JIMY </s>
-0.6021 <s> JIMY ROBOT
-0.3010 <s> JIN AND
-0.3010 <s> JOSH </s>
-0.6021 <s> JOSHUA </s>
-0.6021 <s> JOSHUA NEWN
-0.3010 <s> KILL </s>
-0.3010 <s> LARGER </s>
-0.3010 <s> LAST </s>
-0.3010 <s> LEMONADE </s>
-1.0000 <s> MOVE BACK
-1.0000 <s> MOVE BACKWARD
-1.0000 <s> MOVE FORWARD
-1.0000 <s> MOVE LEFT
-1.0000 <s> MOVE RIGHT
-0.3010 <s> MY NAME
-0.3010 <s> NO </s>
-0.3010 <s> ORANGE JUICE
-0.3010 <s> PANIC </s>
-0.3010 <s> PEAR CIDER
-0.3010 <s> PLEASE </s>
-0.3010 <s> QUARTER SPEED
-0.3010 <s> RED WINE
-0.3010 <s> ROSE WINE
-0.6021 <s> ROTATE LEFT
-0.6021 <s> ROTATE RIGHT
-0.3010 <s> RUM </s>
-0.3010 <s> SHUT DOWN
-0.6021 <s> SIMON </s>
-0.6021 <s> SIMON EGERTON
-0.3010 <s> SLOW DOWN
-0.3010 <s> SLOWER </s>
-0.6021 <s> SOROUSH </s>
-0.6021 <s> SOROUSH SAFFARI
-0.3010 <s> SPEED UP
-0.6021 <s> STOP </s>
-0.6021 <s> STOP NOW
-0.3010 <s> SURPRISE ME
-0.3010 <s> THANK YOU
-0.3010 <s> THAT IS
-0.3010 <s> THE </s>
-0.3010 <s> TO </s>
-0.7782 <s> TURN LEFT
-0.7782 <s> TURN OFF
-0.7782 <s> TURN RIGHT
-0.3010 <s> VODKA </s>
-0.3010 <s> WHAT IS
-0.3010 <s> WHATS YOUR
-0.3010 <s> WHISKY </s>
-0.3010 <s> WHITE WINE
-0.3010 <s> YES </s>
-0.3010 <s> YOUR WELCOME
-0.3010 A BRANDY </s>
-0.3010 A COKE </s>
-0.3010 A DRINK </s>
-0.3010 A GIN AND
-0.3010 A JIN AND
-0.3010 A LARGER </s>
-0.3010 A LEMONADE </s>
-0.3010 A NAME </s>
-0.3010 A PEAR CIDER
-0.3010 A RED WINE
-0.3010 A ROSE WINE
-0.3010 A RUM </s>
-0.3010 A VODKA </s>
-0.3010 A WHISKY </s>
-0.3010 A WHITE WINE
-0.3010 AN ALE </s>
-0.3010 AN APPLE CIDER
-0.3010 AN IRISH CREAM
-0.3010 AN ORANGE JUICE
-0.3010 AND TONIC </s>
-0.3010 ANY DRINK </s>
-0.3010 APPLE CIDER </s>
-0.9031 ARE YOU </s>
-0.6021 ARE YOU DOING
-0.9031 ARE YOU TODAY
-0.3010 CAN I HAVE
-1.8808 CAN YOU CANCEL
-0.6255 CAN YOU CHANGE
-0.6021 CAN YOU GET
-0.3010 CANCEL MY DRINK
-0.3010 CHANGE MY DRINK
-0.3010 COME BACKWARD </s>
-0.3010 COME FORWARD </s>
-0.3010 COME HERE </s>
-0.3010 COME LEFT </s>
-0.3010 COME RIGHT </s>
-0.3010 DO YOU HAVE
-0.3010 DOING TODAY </s>
-0.3010 DONT WANT THAT
-0.3010 DRINK I ORDERED
-1.5315 DRINK TO ALE
-1.5315 DRINK TO APPLE
-1.5315 DRINK TO BRANDY
-1.5315 DRINK TO COKE
-1.5315 DRINK TO GIN
-1.5315 DRINK TO IRISH
-1.5315 DRINK TO JIN
-1.5315 DRINK TO LARGER
-1.5315 DRINK TO LEMONADE
-1.5315 DRINK TO ORANGE
-1.5315 DRINK TO PEAR
-1.5315 DRINK TO RED
-1.5315 DRINK TO ROSE
-1.5315 DRINK TO RUM
-1.5315 DRINK TO VODKA
-1.5315 DRINK TO WHISKY
-1.5315 DRINK TO WHITE
-0.3010 FULL SPEED </s>
-0.4337 GET ME A
-0.9777 GET ME AN
-1.5798 GET ME ANY
-0.3010 GIN AND TONIC
-0.3010 GO BACK </s>
-0.3010 GO BACKWARD </s>
-0.3010 GO FORWARD </s>
-0.3010 GO LEFT </s>
-0.3010 GO RIGHT </s>
-0.3010 GO STRAIGHT </s>
-0.3010 HAFF SPEED </s>
-0.3010 HAIKAL PRIBADI </s>
-0.3010 HALF SPEED </s>
-0.4771 HAVE A DRINK
-0.7782 HAVE A NAME
-0.3010 HELP ME </s>
-0.3010 HOW ARE YOU
-0.3010 I DONT WANT
-0.3010 I HAVE A
-0.3010 I ORDERED </s>
-0.3010 I WOULD LIKE
-0.3010 IRISH CREAM </s>
-0.6021 IS HAIKAL </s>
-0.6021 IS HAIKAL PRIBADI
-0.3010 IS NO WHAT
-0.6021 IS NOT MY
-0.6021 IS NOT THE
-0.6021 IS SIMON </s>
-0.6021 IS SIMON EGERTON
-0.6021 IS SOROUSH </s>
-0.6021 IS SOROUSH SAFFARI
-0.6021 IS THE THE
-0.6021 IS THE WRONG
-0.3010 IS YOUR NAME
-0.3010 JIMMY ROBOT </s>
-0.3010 JIMY ROBOT </s>
-0.3010 JIN AND TONIC
-0.3010 JOSHUA NEWN </s>
-0.6021 LIKE TO CHANGE
-0.6021 LIKE TO HAVE
-1.4472 ME A BRANDY
-1.4472 ME A COKE
-1.4472 ME A DRINK
-1.4472 ME A GIN
-1.4472 ME A JIN
-1.4472 ME A LARGER
-1.4472 ME A LEMONADE
-1.4472 ME A PEAR
-1.4472 ME A RED
-1.4472 ME A ROSE
-1.4472 ME A RUM
-1.4472 ME A VODKA
-1.4472 ME A WHISKY
-1.4472 ME A WHITE
-0.9031 ME AN ALE
-0.9031 ME AN APPLE
-0.9031 ME AN IRISH
-0.9031 ME AN ORANGE
-0.3010 ME ANY DRINK
-0.3010 MOVE BACK </s>
-0.3010 MOVE BACKWARD </s>
-0.3010 MOVE FORWARD </s>
-0.3010 MOVE LEFT </s>
-0.3010 MOVE RIGHT </s>
-0.9445 MY DRINK </s>
-0.4130 MY DRINK TO
-0.3010 MY NAME IS
-1.1461 NAME IS </s>
-0.8451 NAME IS HAIKAL
-0.8451 NAME IS SIMON
-0.8451 NAME IS SOROUSH
-0.3010 NO WHAT I
-0.3010 NOT MY DRINK
-0.3010 NOT THE DRINK
-0.3010 ORANGE JUICE </s>
-0.3010 PEAR CIDER </s>
-0.3010 QUARTER SPEED </s>
-0.3010 RED WINE </s>
-0.3010 ROSE WINE </s>
-0.3010 ROTATE LEFT </s>
-0.3010 ROTATE RIGHT </s>
-0.3010 SHUT DOWN </s>
-0.3010 SIMON EGERTON </s>
-0.3010 SLOW DOWN </s>
-0.3010 SOROUSH SAFFARI </s>
-0.3010 SPEED UP </s>
-0.3010 STOP NOW </s>
-0.3010 SURPRISE ME </s>
-0.3010 THANK YOU </s>
-0.3010 THAT DRINK </s>
-1.0000 THAT IS NO
-0.6990 THAT IS NOT
-0.6990 THAT IS THE
-0.3010 THE DRINK I
-0.3010 THE THE DRINK
-0.3010 THE WRONG DRINK
-0.3010 TO ALE </s>
-0.3010 TO APPLE CIDER
-0.3010 TO BRANDY </s>
-0.3010 TO CHANGE MY
-0.3010 TO COKE </s>
-0.3010 TO GIN AND
-0.3010 TO HAVE A
-0.3010 TO IRISH CREAM
-0.3010 TO JIN AND
-0.3010 TO LARGER </s>
-0.3010 TO LEMONADE </s>
-0.3010 TO ORANGE JUICE
-0.3010 TO PEAR CIDER
-0.3010 TO RED WINE
-0.3010 TO ROSE WINE
-0.3010 TO RUM </s>
-0.3010 TO VODKA </s>
-0.3010 TO WHISKY </s>
-0.3010 TO WHITE WINE
-0.3010 TURN LEFT </s>
-0.3010 TURN OFF </s>
-0.3010 TURN RIGHT </s>
-0.3010 WANT THAT DRINK
-0.3010 WHAT I ORDERED
-0.3010 WHAT IS YOUR
-0.3010 WHATS YOUR NAME
-0.3010 WHITE WINE </s>
-0.3010 WOULD LIKE TO
-0.3010 WRONG DRINK </s>
-0.3010 YOU CANCEL MY
-0.3010 YOU CHANGE MY
-0.6021 YOU DOING </s>
-0.6021 YOU DOING TODAY
-0.3010 YOU GET ME
-0.3010 YOU HAVE A
-0.3010 YOU TODAY </s>
-0.3010 YOUR NAME </s>
-0.3010 YOUR WELCOME </s>

\end\
